digraph Tree {
node [shape=box] ;
0 [label="loss_of_smell <= 0.5\ngini = 0.976\nsamples = 3296\nvalue = [83, 78, 78, 80, 84, 78, 72, 83, 82, 89, 86, 74\n85, 70, 82, 87, 77, 77, 78, 73, 80, 82, 70, 83\n78, 76, 82, 84, 83, 85, 81, 90, 82, 89, 74, 87\n80, 79, 79, 80, 76]"] ;
1 [label="internal_itching <= 0.5\ngini = 0.975\nsamples = 3210\nvalue = [83, 78, 78, 80, 84, 78, 72, 83, 82, 89, 0, 74\n85, 70, 82, 87, 77, 77, 78, 73, 80, 82, 70, 83\n78, 76, 82, 84, 83, 85, 81, 90, 82, 89, 74, 87\n80, 79, 79, 80, 76]"] ;
0 -> 1 [labeldistance=2.5, labelangle=45, headlabel="True"] ;
2 [label="hip_joint_pain <= 0.5\ngini = 0.974\nsamples = 3124\nvalue = [83, 78, 78, 80, 84, 78, 72, 83, 82, 89, 0, 74\n85, 70, 82, 87, 77, 77, 78, 73, 80, 82, 70, 83\n78, 76, 82, 84, 83, 85, 81, 90, 82, 3, 74, 87\n80, 79, 79, 80, 76]"] ;
1 -> 2 ;
3 [label="polyuria <= 0.5\ngini = 0.974\nsamples = 3038\nvalue = [83, 78, 78, 80, 84, 78, 72, 83, 82, 89, 0, 74\n85, 70, 82, 87, 77, 77, 78, 73, 80, 82, 70, 83\n78, 76, 82, 84, 83, 85, 81, 4, 82, 3, 74, 87\n80, 79, 79, 80, 76]"] ;
2 -> 3 ;
4 [label="silver_like_dusting <= 0.5\ngini = 0.973\nsamples = 2953\nvalue = [83, 78, 78, 80, 84, 78, 72, 83, 82, 89, 0, 74\n0, 70, 82, 87, 77, 77, 78, 73, 80, 82, 70, 83\n78, 76, 82, 84, 83, 85, 81, 4, 82, 3, 74, 87\n80, 79, 79, 80, 76]"] ;
3 -> 4 ;
5 [label="swollen_extremeties <= 0.5\ngini = 0.972\nsamples = 2870\nvalue = [83, 78, 78, 80, 84, 78, 72, 83, 82, 89, 0, 74\n0, 70, 82, 87, 77, 77, 78, 73, 80, 82, 70, 83\n78, 76, 82, 84, 83, 85, 81, 4, 82, 3, 74, 4\n80, 79, 79, 80, 76]"] ;
4 -> 5 ;
6 [label="blood_in_sputum <= 0.5\ngini = 0.972\nsamples = 2788\nvalue = [83, 78, 78, 80, 84, 78, 72, 83, 82, 89, 0, 74\n0, 70, 82, 87, 77, 77, 78, 73, 80, 82, 70, 83\n78, 76, 0, 84, 83, 85, 81, 4, 82, 3, 74, 4, 80\n79, 79, 80, 76]"] ;
5 -> 6 ;
7 [label="yellow_crust_ooze <= 0.5\ngini = 0.971\nsamples = 2708\nvalue = [83, 78, 78, 80, 84, 78, 72, 83, 82, 89, 0, 74\n0, 70, 82, 87, 77, 77, 78, 73, 80, 82, 70, 83\n78, 76, 0, 84, 83, 85, 81, 4, 82, 3, 74, 4, 0\n79, 79, 80, 76]"] ;
6 -> 7 ;
8 [label="nodal_skin_eruptions <= 0.5\ngini = 0.97\nsamples = 2628\nvalue = [83, 78, 78, 80, 84, 78, 72, 83, 82, 89, 0, 74\n0, 70, 82, 87, 77, 77, 78, 73, 80, 82, 70, 83\n78, 76, 0, 4, 83, 85, 81, 4, 82, 3, 74, 4, 0\n79, 79, 80, 76]"] ;
7 -> 8 ;
9 [label="unsteadiness <= 0.5\ngini = 0.969\nsamples = 2548\nvalue = [83, 78, 78, 80, 84, 78, 72, 83, 82, 89, 0, 74\n0, 70, 82, 7, 77, 77, 78, 73, 80, 82, 70, 83\n78, 76, 0, 4, 83, 85, 81, 4, 82, 3, 74, 4, 0\n79, 79, 80, 76]"] ;
8 -> 9 ;
10 [label="weight_loss <= 0.5\ngini = 0.968\nsamples = 2469\nvalue = [4, 78, 78, 80, 84, 78, 72, 83, 82, 89, 0, 74\n0, 70, 82, 7, 77, 77, 78, 73, 80, 82, 70, 83\n78, 76, 0, 4, 83, 85, 81, 4, 82, 3, 74, 4, 0\n79, 79, 80, 76]"] ;
9 -> 10 ;
11 [label="(...)"] ;
10 -> 11 ;
134 [label="(...)"] ;
10 -> 134 ;
137 [label="gini = 0.0\nsamples = 79\nvalue = [79, 0, 0, 0, 0, 0, 0, 0, 0, 0, 0, 0, 0, 0\n0, 0, 0, 0, 0, 0, 0, 0, 0, 0, 0, 0, 0, 0\n0, 0, 0, 0, 0, 0, 0, 0, 0, 0, 0, 0, 0]"] ;
9 -> 137 ;
138 [label="gini = 0.0\nsamples = 80\nvalue = [0, 0, 0, 0, 0, 0, 0, 0, 0, 0, 0, 0, 0, 0\n0, 80, 0, 0, 0, 0, 0, 0, 0, 0, 0, 0, 0, 0\n0, 0, 0, 0, 0, 0, 0, 0, 0, 0, 0, 0, 0]"] ;
8 -> 138 ;
139 [label="gini = 0.0\nsamples = 80\nvalue = [0, 0, 0, 0, 0, 0, 0, 0, 0, 0, 0, 0, 0, 0\n0, 0, 0, 0, 0, 0, 0, 0, 0, 0, 0, 0, 0, 80\n0, 0, 0, 0, 0, 0, 0, 0, 0, 0, 0, 0, 0]"] ;
7 -> 139 ;
140 [label="gini = 0.0\nsamples = 80\nvalue = [0, 0, 0, 0, 0, 0, 0, 0, 0, 0, 0, 0, 0, 0\n0, 0, 0, 0, 0, 0, 0, 0, 0, 0, 0, 0, 0, 0\n0, 0, 0, 0, 0, 0, 0, 0, 80, 0, 0, 0, 0]"] ;
6 -> 140 ;
141 [label="gini = 0.0\nsamples = 82\nvalue = [0, 0, 0, 0, 0, 0, 0, 0, 0, 0, 0, 0, 0, 0\n0, 0, 0, 0, 0, 0, 0, 0, 0, 0, 0, 0, 82, 0\n0, 0, 0, 0, 0, 0, 0, 0, 0, 0, 0, 0, 0]"] ;
5 -> 141 ;
142 [label="gini = 0.0\nsamples = 83\nvalue = [0, 0, 0, 0, 0, 0, 0, 0, 0, 0, 0, 0, 0, 0\n0, 0, 0, 0, 0, 0, 0, 0, 0, 0, 0, 0, 0, 0\n0, 0, 0, 0, 0, 0, 0, 83, 0, 0, 0, 0, 0]"] ;
4 -> 142 ;
143 [label="gini = 0.0\nsamples = 85\nvalue = [0, 0, 0, 0, 0, 0, 0, 0, 0, 0, 0, 0, 85, 0\n0, 0, 0, 0, 0, 0, 0, 0, 0, 0, 0, 0, 0, 0\n0, 0, 0, 0, 0, 0, 0, 0, 0, 0, 0, 0, 0]"] ;
3 -> 143 ;
144 [label="gini = 0.0\nsamples = 86\nvalue = [0, 0, 0, 0, 0, 0, 0, 0, 0, 0, 0, 0, 0, 0\n0, 0, 0, 0, 0, 0, 0, 0, 0, 0, 0, 0, 0, 0\n0, 0, 0, 86, 0, 0, 0, 0, 0, 0, 0, 0, 0]"] ;
2 -> 144 ;
145 [label="gini = 0.0\nsamples = 86\nvalue = [0, 0, 0, 0, 0, 0, 0, 0, 0, 0, 0, 0, 0, 0\n0, 0, 0, 0, 0, 0, 0, 0, 0, 0, 0, 0, 0, 0\n0, 0, 0, 0, 0, 86, 0, 0, 0, 0, 0, 0, 0]"] ;
1 -> 145 ;
146 [label="gini = 0.0\nsamples = 86\nvalue = [0, 0, 0, 0, 0, 0, 0, 0, 0, 0, 86, 0, 0, 0\n0, 0, 0, 0, 0, 0, 0, 0, 0, 0, 0, 0, 0, 0\n0, 0, 0, 0, 0, 0, 0, 0, 0, 0, 0, 0, 0]"] ;
0 -> 146 [labeldistance=2.5, labelangle=-45, headlabel="False"] ;
}